the -0.006177 -0.001596 0.005463 0.000777 -0.004517 0.000568 -0.001781 0.005277 0.001854 0.003527 0.004814 0.001709 0.005054 -0.001789 -0.009467 0.000644 -0.007989 -0.000699 -0.002406 -0.005844 -0.006836 0.003857 -0.002418 -0.002734 0.003562 -0.004537 -0.002812 0.000324 -0.007920 0.006983 -0.003913 -0.005411 0.002598 -0.000534 0.002115 -0.005368 -0.001297 -0.002582 0.005882 0.000473 0.005660 0.001413 0.000629 -0.000531 0.005704 0.000028 -0.000472 0.002844 0.003855 0.004425 -0.006469 0.003184 0.002893 0.002740 0.000336 0.000444 -0.008714 0.000102 0.004552 0.002801 -0.001007 0.002194 0.001217 0.001505 -0.000713 0.002906 -0.003784 -0.000544 0.005469 0.004382 -0.003084 -0.002604 0.000971 0.000262 -0.006421 0.004329 -0.002535 0.005218 0.000120 0.002784 -0.001303 -0.005491 -0.002073 -0.003910 0.000396 0.001988 0.004669 -0.001488 0.000944 0.003394 0.006365 -0.000631 0.001879 -0.002258 0.002063 -0.006989 -0.000935 -0.000551 -0.006764 0.003689 -0.006179 0.001137 -0.001644 -0.001741 -0.002053 -0.002655 -0.006596 0.000316 0.000111 -0.001281 0.000121 0.001034 0.002666 0.000811 0.005084 0.000096 -0.005011 0.007520 0.006549 0.001462 0.005671 0.008280 0.004953 -0.002450 -0.000292 0.001744 -0.000568 -0.001819 -0.001982 -0.000824 0.000951 0.007039 -0.001665 -0.002049 -0.004476 -0.003219 0.000656 0.003397 0.001115 0.004431 0.003292 0.000897 -0.002435 0.003140 -0.003872 -0.006565 -0.002133 0.000555 0.003324 0.002926 0.004179 -0.002490 -0.003786 -0.003939 -0.001757 0.004105 0.000068 0.002981 -0.003002 0.003173 0.003081 0.001702 0.002910 -0.000783 0.005014 -0.000291 -0.000759 0.003840 -0.002393 0.001774 -0.001965 -0.001173 -0.006711 -0.005264 0.000838 -0.002926 -0.003567 -0.008234 -0.002626 -0.001655 0.000473 0.002897 -0.006957 0.006425 -0.004915 0.000058 0.001255 -0.006910 0.003708 0.007674 0.008219 -0.000260 -0.002657 0.007287 -0.001898 -0.004054 0.002501 0.002900 0.002161 0.001042
your -0.000230 0.002974 0.002971 -0.000171 -0.002774 0.000255 0.004319 0.002932 0.000729 0.001329 -0.000425 -0.001318 -0.003827 0.003096 0.000382 -0.004113 -0.002341 0.003228 -0.001346 0.001737 -0.006704 -0.000440 0.002952 -0.003725 0.003758 0.000246 0.000175 -0.001612 -0.002545 -0.002411 -0.001397 -0.002135 0.000861 0.000647 -0.005862 0.001902 -0.002497 -0.003575 -0.001099 -0.003679 0.000270 0.001500 -0.000397 0.000932 0.001793 -0.000217 0.002809 -0.001472 -0.000167 -0.001592 -0.004880 -0.002125 0.004084 -0.002608 0.003672 -0.003186 -0.001700 -0.001353 0.003319 0.004377 -0.000237 0.001946 0.004825 -0.003968 0.000507 0.001944 -0.003164 0.000712 -0.002536 0.002616 0.001167 0.003632 0.001955 -0.002230 0.001214 -0.001527 0.002815 0.000520 -0.000091 -0.001632 -0.005749 -0.003621 0.001202 0.001209 0.001724 -0.001715 -0.001514 0.002625 -0.002926 -0.000010 -0.000965 0.000378 0.001893 -0.003973 -0.002889 -0.000769 0.000494 -0.001776 -0.000393 0.001891 -0.001895 0.004788 0.000612 0.000837 0.000823 -0.000578 -0.002325 -0.000232 0.000775 0.001447 0.002521 -0.001877 0.000260 0.002433 -0.000927 0.000721 -0.003361 -0.000830 -0.001083 -0.000139 0.001046 -0.000977 -0.003775 0.000757 0.002327 0.004203 -0.001559 0.001751 -0.004429 -0.000521 0.000768 0.001320 0.003453 -0.003921 -0.007015 -0.002410 0.000252 -0.001252 -0.001827 0.000869 -0.000744 0.000450 -0.000278 0.001335 -0.001582 -0.003395 0.002334 -0.000337 0.000625 -0.003459 -0.000358 0.004269 -0.002585 -0.003037 0.000222 -0.005468 -0.003489 0.004838 0.001456 0.001579 -0.004399 -0.000686 0.002112 -0.001051 -0.000821 -0.000182 0.000460 0.000544 -0.002033 -0.000805 0.000021 -0.001591 -0.002186 -0.000273 0.000624 0.000682 0.003715 -0.000813 0.001221 0.001844 0.000371 -0.002900 0.002497 0.001874 0.002580 0.002653 0.000356 -0.002079 0.000230 0.001549 0.001306 -0.002528 0.001320 -0.000197 -0.002228 -0.003973 -0.000794 -0.001559 -0.005640 -0.001791
on -0.002399 0.000742 0.000545 -0.002874 -0.004976 -0.002872 0.002525 0.001579 0.001037 0.000602 0.000114 0.001808 -0.001361 -0.000572 -0.003985 0.000899 -0.005479 -0.000797 0.001158 0.000117 -0.005089 0.000544 0.002605 0.001098 0.000723 -0.000817 -0.002344 0.001227 -0.003799 -0.001109 0.000457 -0.001734 0.002525 0.003408 0.000159 -0.000501 -0.002688 -0.000765 -0.000161 -0.002427 0.002400 -0.000089 0.001872 0.001530 0.000728 -0.002579 0.000254 0.001082 0.000535 0.002413 -0.002619 0.001338 0.001471 0.000513 0.004083 -0.001145 -0.003204 0.000500 0.001203 0.002829 -0.001097 0.003629 0.004431 0.001411 -0.002191 0.002767 -0.002528 0.000912 0.002102 0.002391 -0.001235 -0.000682 0.000806 -0.002212 -0.001515 -0.000772 -0.000759 0.004576 -0.001712 -0.002065 -0.003710 -0.004875 -0.001802 -0.001183 -0.000483 -0.001362 0.003542 0.001799 0.000980 0.004359 -0.000030 -0.001113 0.001057 -0.003459 0.002390 -0.003732 0.000308 -0.000970 -0.001728 0.002689 -0.003528 0.003498 0.001346 0.000651 -0.001702 -0.004152 -0.003080 0.001523 0.000436 0.000930 0.002451 0.001779 0.001387 -0.000046 0.002483 0.003579 -0.002810 0.002073 -0.000384 -0.000102 0.002040 -0.001644 0.003081 -0.000920 0.000423 0.003106 -0.000659 0.001776 0.000093 0.000565 0.002022 0.005368 -0.000124 -0.002796 -0.005361 -0.001406 -0.000104 0.002446 0.002479 0.002989 0.002093 0.000714 -0.000884 0.000936 0.000167 -0.002236 0.000980 0.000149 0.002164 0.001547 0.002438 -0.001921 0.000545 -0.003224 -0.001855 0.002862 0.001353 0.002740 -0.001187 0.000213 -0.001826 0.000867 0.003201 -0.000827 0.002762 -0.002486 -0.002203 0.004765 -0.002222 0.000542 -0.000727 -0.001326 -0.004635 -0.001022 0.002935 0.003460 0.001343 -0.001246 -0.002091 0.000713 -0.000239 0.003148 -0.000087 0.002051 -0.002424 0.000045 -0.000270 -0.003759 -0.001399 0.004813 0.004761 0.000769 -0.000051 0.000335 0.001001 -0.002511 0.001326 0.001709 -0.000787 0.000420
to -0.000423 -0.003795 -0.001371 0.000141 0.001593 -0.000044 0.005184 0.000565 0.001964 -0.001272 -0.001749 -0.000726 0.002424 -0.004231 -0.000642 0.001175 0.000240 -0.000551 -0.001178 -0.002417 0.001719 -0.002893 0.002128 0.001603 0.001593 0.000723 0.000461 0.003529 -0.000016 0.000028 -0.003063 0.002628 0.003155 0.001445 0.001634 0.000482 -0.000886 0.000467 -0.002171 0.002748 -0.000503 -0.000841 -0.000144 -0.001756 -0.001711 -0.000228 0.005434 0.000456 -0.000584 0.001399 -0.002653 -0.001318 -0.001370 0.000860 0.002375 -0.002182 -0.000147 0.000130 -0.002045 -0.000490 -0.000721 0.001971 0.005276 0.001353 -0.001960 0.000636 0.000027 0.002320 0.000185 -0.000493 0.002436 -0.002760 -0.001229 -0.004286 0.003096 0.001648 0.002945 -0.000358 -0.000874 -0.000438 -0.002556 -0.001184 -0.001481 0.000666 -0.001369 -0.001728 0.000797 -0.003139 -0.000297 -0.002149 0.003810 -0.000779 -0.001955 -0.001396 0.003032 -0.004225 -0.001236 -0.001179 -0.000166 0.000447 -0.003704 0.001683 0.000505 -0.001256 0.001000 -0.003019 0.000025 0.003697 0.003046 -0.000203 0.001953 0.004750 0.004881 -0.000067 0.005274 0.003028 -0.001017 0.003085 0.000482 0.000752 0.001565 0.001924 -0.001649 -0.000365 -0.001440 0.000291 0.000501 -0.000896 0.003404 -0.001875 -0.000566 -0.001939 0.003259 -0.000270 -0.003069 -0.002727 0.000278 -0.001526 0.001669 0.003386 0.001675 0.001777 -0.004092 0.001477 0.000982 0.000265 -0.000816 0.003260 0.001964 -0.000727 0.002201 0.002500 0.000318 -0.000876 0.002274 0.005638 0.002272 0.002208 -0.000610 -0.002272 0.000222 -0.003929 0.001452 -0.000584 0.001757 0.000705 0.001637 0.002433 0.000946 -0.000184 -0.000174 0.002877 -0.002452 -0.003407 -0.000925 0.003240 -0.000208 -0.001893 -0.005180 -0.000797 0.001468 0.000565 0.001381 -0.002110 -0.000776 0.002649 0.000384 0.000414 0.002700 0.004003 0.002807 -0.002452 0.001495 -0.000900 -0.000483 0.002695 -0.001317 0.000714 0.003325 -0.001581
or -0.002403 0.001120 0.004296 0.001706 -0.001027 -0.001250 0.003372 0.006349 0.000942 0.000122 0.000578 -0.001265 0.002018 -0.000942 -0.001954 -0.003587 -0.000835 0.003675 -0.003040 -0.002633 -0.004651 0.004696 -0.003864 -0.005342 0.003164 -0.002463 -0.002190 0.000507 -0.000398 0.001817 -0.001430 -0.000154 0.001124 0.000309 -0.002451 -0.002529 0.001402 -0.001689 0.000485 -0.003552 -0.000443 0.002966 -0.000253 0.003263 0.005392 0.001492 0.001450 -0.002904 0.003715 -0.002357 -0.007051 -0.000803 0.003624 0.001151 0.003407 -0.002644 -0.004226 -0.001914 0.000228 0.002255 0.002300 0.002203 0.000654 0.000577 0.001638 0.004510 -0.005800 0.001419 0.000804 0.000566 0.000251 0.002174 0.000938 -0.000430 -0.001015 0.001935 0.001317 -0.002997 0.001504 0.003133 -0.004490 -0.004362 0.002646 0.000808 0.001666 0.003936 0.002689 -0.001468 -0.003896 0.001345 0.000737 -0.001554 0.000399 -0.002634 -0.005169 0.000201 -0.000757 0.000609 -0.001352 -0.001484 -0.003086 -0.002842 -0.003479 -0.000648 0.002145 -0.001555 -0.002821 -0.001542 -0.000468 -0.001912 -0.001277 -0.003257 -0.001409 -0.002063 0.003810 -0.001519 -0.000455 -0.000226 0.003472 -0.001856 0.004023 0.004982 0.000691 0.001793 0.001327 0.004492 0.000518 0.000637 -0.002353 -0.001803 -0.001019 0.000409 0.000805 -0.003800 -0.004424 -0.002462 0.001430 -0.001179 -0.002510 -0.002237 -0.002403 -0.001927 -0.002337 0.003334 0.000323 -0.004535 0.000908 0.000623 -0.000471 -0.003265 0.000904 0.000276 -0.002420 -0.003369 -0.003968 -0.006169 -0.001154 0.002048 0.000626 0.000704 0.003181 0.002201 -0.002939 -0.001551 0.001436 0.004011 -0.000825 -0.002043 -0.004252 0.001159 -0.000054 0.002051 0.001048 -0.000450 0.000605 -0.000835 -0.000353 -0.004351 0.002054 -0.000651 -0.000589 -0.004855 -0.001480 0.003203 -0.001333 0.001760 0.001173 -0.002603 0.002964 -0.000918 0.005075 -0.001220 -0.000194 0.004458 -0.000461 -0.004054 0.001529 -0.000941 0.000592 -0.002401
about -0.003358 -0.000332 0.002173 0.003666 0.000895 -0.001239 -0.000319 0.003902 -0.000129 0.000085 0.002418 0.000420 0.006855 -0.004402 -0.002807 0.000593 0.001069 -0.004224 -0.002495 -0.003936 0.002103 0.004515 -0.002371 -0.002339 0.002782 -0.001419 -0.000297 0.002235 -0.000935 0.004087 -0.003010 -0.002136 0.001607 0.001994 0.004454 -0.001232 0.002780 -0.000523 0.002825 0.001090 -0.000349 -0.001045 0.001007 0.001189 0.003161 0.000842 0.002914 0.000933 -0.001777 0.000745 0.000752 -0.000301 0.003530 0.004439 -0.001992 -0.000761 -0.002908 0.001578 0.000472 -0.002080 -0.002116 0.000786 0.002613 0.001122 -0.000724 0.002524 0.001455 -0.001402 0.000414 0.001356 -0.000334 -0.004144 -0.002631 -0.000674 -0.004062 0.003221 -0.000790 -0.002503 0.001613 0.003095 0.000735 -0.001369 -0.003273 -0.003632 -0.002742 0.001764 -0.000269 -0.000857 0.002426 -0.003078 0.005450 -0.000568 0.000434 0.000741 0.002303 -0.002245 0.002017 0.001574 -0.004214 -0.000914 -0.001801 -0.002056 -0.001465 0.001937 -0.002372 -0.000695 -0.003280 0.002010 0.003657 -0.002968 -0.005308 0.004367 0.001003 -0.001036 0.003777 0.001514 -0.000782 0.005960 0.001544 -0.000281 0.001743 0.007084 0.002235 -0.003091 0.000555 -0.000537 0.000565 0.000701 0.002940 -0.000103 -0.001286 0.003974 -0.004432 0.001130 0.000796 0.000534 0.000949 0.002098 -0.000508 0.001666 -0.002366 0.001539 -0.003601 0.000122 0.002300 -0.002254 -0.001067 -0.000961 0.001388 0.000341 0.002861 -0.002406 0.000075 0.000373 -0.001942 0.004768 -0.000121 0.001455 0.000230 0.002262 0.006060 0.000486 -0.001231 -0.002769 0.001705 0.002127 0.001289 -0.001631 0.000837 0.000022 -0.001660 0.000083 -0.003712 -0.004952 0.001866 -0.001603 -0.003702 -0.004746 -0.001695 -0.003936 -0.000948 -0.001340 -0.002858 0.001612 -0.002994 -0.002536 0.001827 -0.003252 0.000889 0.005622 0.006238 0.000287 -0.001504 0.000085 -0.001723 0.002303 0.000395 0.005173 0.002927 0.001333
you -0.001585 -0.000584 -0.003649 0.001212 0.005851 -0.000253 0.004205 0.003697 0.005244 -0.001739 -0.002336 -0.000223 0.001716 -0.006749 0.000392 0.003242 0.003457 -0.001958 0.000023 -0.003076 0.006576 -0.000636 0.002918 0.001361 0.002351 0.000674 0.001936 0.004745 0.002225 -0.000761 0.000587 0.000878 0.004105 0.003669 0.001686 -0.002488 0.002659 -0.003099 -0.001609 0.004193 -0.001440 -0.002357 -0.003386 0.002349 -0.000602 -0.001840 0.003170 0.000767 -0.004961 -0.000382 -0.002588 -0.000677 -0.000144 0.001949 0.002748 0.000227 0.001159 -0.001159 0.000262 0.000547 0.001238 0.003518 0.006110 0.001505 -0.005489 -0.001841 0.000563 0.002067 -0.001096 -0.004817 -0.000486 0.000894 -0.001979 -0.000040 0.001877 -0.000429 0.004297 -0.003110 -0.003303 -0.001309 -0.000954 -0.000391 -0.000854 0.002861 -0.000980 -0.002151 -0.004339 -0.002961 0.000567 -0.003270 -0.000056 0.004150 -0.004253 0.000057 0.004675 0.001230 0.001016 -0.002568 -0.000908 -0.000565 -0.004028 -0.000229 0.004127 0.001159 0.002252 -0.001137 -0.001099 0.001283 0.004439 -0.001367 0.000161 0.004962 0.003548 -0.000005 0.005455 0.002061 0.000454 0.002345 0.002894 -0.000651 0.003893 0.005107 -0.002017 0.001710 -0.003875 -0.001955 0.000631 0.002148 0.004159 0.000683 -0.002537 -0.001530 -0.000385 0.001749 -0.002327 -0.000419 0.002823 -0.004153 0.003296 0.000789 0.002195 0.004013 -0.002714 0.000355 0.001392 -0.004184 0.001891 0.000166 0.001706 0.000545 0.000545 -0.002545 0.001170 0.000051 -0.002264 0.002236 0.003195 -0.000369 0.002360 0.000645 0.004090 -0.005452 -0.001872 0.000548 0.000065 0.001858 0.005122 -0.001682 -0.000975 -0.001865 0.003356 -0.001884 0.002725 -0.002801 -0.000081 -0.001670 -0.000488 -0.001218 -0.002047 0.000691 -0.000459 -0.000009 0.000907 -0.001476 -0.000467 -0.002036 -0.000601 0.000318 0.004670 0.005386 0.005414 -0.000017 -0.000665 -0.005601 0.000431 -0.001026 -0.002998 0.002360 0.005900 -0.003822
a 0.002733 0.001414 -0.002948 0.002168 -0.002126 -0.001885 0.006138 0.001664 -0.003687 0.003562 0.000095 -0.003591 0.000312 0.001160 0.003066 -0.005715 -0.003059 0.002246 -0.000426 0.000349 -0.003443 -0.001264 0.001027 -0.002089 0.002305 -0.001950 0.001445 0.002546 0.001605 -0.003072 -0.002547 0.001140 -0.001547 0.002562 -0.003003 0.003475 0.001288 0.002334 0.001537 -0.002745 -0.004859 -0.003358 -0.001713 0.001364 -0.001652 0.000568 0.001270 -0.001218 -0.002445 -0.001682 -0.000658 0.002001 0.000413 -0.001066 -0.001520 -0.002395 0.000488 0.000718 0.000860 -0.001558 0.000730 0.003017 0.000188 -0.002048 0.001734 0.000450 0.000885 0.001011 -0.003358 -0.000787 0.002086 0.001178 -0.001684 -0.004408 0.000941 0.004001 0.001728 -0.006020 -0.000800 0.002410 0.001343 0.000095 0.003390 0.003041 -0.001383 -0.000206 0.000549 -0.003003 -0.004509 -0.001300 0.000161 -0.001456 0.002521 -0.004900 -0.004541 0.000261 -0.002959 -0.001245 -0.001003 0.002141 -0.000329 0.002783 -0.002296 0.000983 0.002269 -0.001033 0.003468 -0.002105 0.002604 -0.001411 -0.003190 -0.003391 -0.000122 0.002353 0.000087 0.000901 0.000991 -0.004278 -0.004070 -0.000201 0.001535 0.002206 0.001223 -0.001854 0.002925 0.002670 0.002092 -0.003855 -0.002436 -0.001508 -0.000528 -0.000335 0.000648 -0.000600 -0.004257 0.000991 -0.003230 -0.003821 0.001748 -0.000563 -0.003218 -0.000034 -0.000419 0.000609 0.002161 -0.000298 -0.003228 -0.001866 -0.001130 -0.003574 0.001886 0.004655 0.001298 -0.000343 -0.001284 -0.003053 -0.000728 0.001718 0.003209 0.003216 -0.002066 -0.003677 -0.001282 -0.001001 -0.003678 0.003033 -0.000317 -0.003220 -0.001485 -0.000199 -0.003364 -0.001859 -0.003571 -0.000215 0.002979 0.002578 0.002103 0.001710 0.004189 -0.001385 -0.000430 -0.005413 -0.000698 -0.003194 -0.001667 0.002211 -0.002005 0.002662 -0.000629 -0.001349 0.005167 0.000387 -0.003465 -0.001606 -0.000472 -0.004497 -0.003158 0.001296 -0.001201 -0.002388
of 0.002398 0.001971 0.002151 0.001528 -0.003369 -0.001841 0.001886 0.000338 -0.002711 -0.000315 0.000716 -0.000693 0.000587 0.000513 0.001865 -0.003325 -0.002567 0.000937 0.001067 0.000077 -0.003133 -0.000750 -0.001342 -0.003996 0.001801 -0.002236 -0.000766 0.004052 -0.000357 -0.000879 -0.003970 -0.000176 0.001088 0.003311 0.000120 0.002715 -0.000517 -0.002167 0.003493 0.001212 0.000439 -0.000110 0.000336 -0.000109 -0.001723 -0.002562 -0.001627 -0.000722 -0.000552 -0.001548 0.002963 0.003508 -0.000145 0.000954 -0.002514 0.000093 -0.000658 0.004013 0.002822 0.001027 0.000229 0.001855 -0.001226 -0.002314 -0.003868 0.000084 0.002326 0.000639 -0.001595 -0.002362 -0.002993 -0.000079 0.002129 -0.001412 -0.002417 0.002616 -0.000487 -0.004712 0.001123 -0.001164 0.001157 0.000807 -0.000399 -0.000352 -0.001557 -0.002391 -0.002816 -0.002609 -0.001620 -0.002394 0.000282 -0.000813 0.002008 -0.004244 -0.001074 0.000244 -0.000824 -0.000386 -0.002032 0.002201 -0.003980 -0.000004 -0.000856 0.001453 -0.001318 -0.000833 0.000774 -0.003862 0.002166 -0.000076 -0.004426 -0.001020 0.000548 -0.001143 0.001421 0.000529 -0.000402 0.001870 -0.002671 0.001271 -0.000996 0.003226 0.000496 -0.002545 0.000365 -0.000795 0.001851 -0.000625 -0.000476 0.001529 0.000634 0.002394 -0.001293 0.000328 -0.001072 0.002004 -0.001637 -0.000166 0.000245 0.002500 0.000458 -0.000206 0.002591 -0.003593 -0.000740 0.000368 -0.002383 -0.002810 -0.000175 0.002496 -0.002094 0.002772 0.001305 0.001195 -0.000574 -0.000028 -0.000621 -0.001447 0.002508 0.002279 0.002390 -0.001150 -0.001393 0.001054 0.002083 0.003051 -0.000946 -0.000764 -0.000522 -0.000639 -0.002438 -0.002604 -0.002951 0.001664 0.000856 -0.000117 0.000406 -0.001276 -0.000747 -0.001590 -0.000489 0.001928 -0.002993 0.000696 -0.000735 -0.000569 -0.001238 0.000977 -0.002636 0.001900 0.003317 0.003454 -0.002939 -0.002181 0.000885 -0.001895 -0.001724 -0.000648 -0.001375 0.000205
with 0.002285 -0.002078 -0.000807 -0.000518 0.002134 -0.000594 0.005453 -0.001793 0.002340 -0.003559 -0.004617 0.001087 0.000804 -0.004271 -0.001146 0.000631 0.003472 -0.000131 -0.000746 -0.000771 -0.000278 -0.003692 -0.000639 -0.000168 0.001237 -0.000104 0.001558 0.000985 -0.000314 0.000091 0.000830 -0.000828 0.001785 -0.000119 -0.000671 -0.000626 -0.002825 -0.002220 -0.001200 -0.002145 -0.000339 0.000484 0.001403 0.000150 0.000259 0.001252 0.004139 -0.000357 0.002208 0.000367 -0.003786 -0.000048 -0.000529 -0.000061 0.000809 -0.001008 -0.000150 0.000436 -0.002856 0.001193 0.003172 -0.001648 0.002699 -0.002426 -0.002303 0.002964 -0.002397 -0.001121 -0.002938 0.001564 0.002743 -0.000121 -0.001273 -0.002643 0.001902 -0.000505 0.000312 0.000014 -0.000027 -0.002617 -0.003448 -0.001415 0.001656 -0.000720 0.000571 0.001327 0.002636 -0.003414 -0.002844 0.000814 0.000338 0.002512 -0.002148 -0.000259 -0.000002 -0.001628 -0.001076 0.000291 0.001614 0.001387 -0.002992 0.000380 -0.000281 -0.000089 0.000522 -0.002171 -0.002488 0.004071 -0.000275 0.000602 0.000886 -0.000156 0.004461 0.000159 0.005969 0.001261 0.001344 0.003527 0.004444 0.000579 0.003993 -0.001336 -0.002626 -0.001939 -0.000921 0.000409 -0.000756 0.001330 0.000175 -0.000977 0.000544 -0.003300 0.002585 -0.000667 0.001994 -0.001452 -0.000521 0.001519 0.001223 0.000072 -0.003051 -0.000207 -0.000934 -0.000699 -0.000051 -0.000942 -0.001231 0.002142 0.002394 -0.002219 0.003155 0.002126 -0.002542 0.002956 -0.000133 0.004998 0.000276 0.002206 0.001652 -0.000142 -0.000199 -0.001170 0.000432 0.000953 0.003249 -0.000585 0.002374 0.003687 0.002417 -0.002034 -0.000441 0.004489 0.000329 -0.001582 -0.004016 0.003530 -0.000852 -0.002744 -0.003535 0.002960 0.000753 0.000786 0.002037 -0.003444 0.004450 0.003110 -0.000821 0.002525 0.004041 0.002142 -0.000856 -0.001072 -0.000372 0.000116 -0.000079 0.000484 -0.002421 0.002456 0.002781 -0.003901
computer -0.002735 -0.001375 0.004079 0.001905 -0.001897 -0.001214 -0.001270 0.005968 -0.001215 -0.000601 0.003217 -0.000511 -0.000799 -0.000791 -0.003677 -0.000609 -0.005383 0.000113 -0.000827 -0.001081 -0.006071 0.002628 0.001995 -0.003638 0.000682 -0.000588 -0.002016 -0.000045 -0.003419 0.001838 -0.002851 -0.005312 0.002480 -0.000113 -0.001900 -0.004606 -0.002557 -0.000253 0.002454 -0.003458 0.003610 0.003392 -0.000960 0.000412 0.002429 -0.000038 -0.000343 0.000435 0.005507 -0.000037 -0.005379 0.002036 0.004254 -0.000310 0.001190 0.000441 -0.003750 -0.003539 0.001643 0.003573 0.000851 0.003490 -0.000763 0.001605 0.000564 0.000698 -0.005199 -0.000165 0.003222 0.003610 -0.000753 0.002572 -0.000015 0.000584 -0.003514 0.002276 0.000846 0.004174 0.001030 0.001091 -0.001420 -0.004460 0.001900 0.000677 0.000239 -0.001009 0.000688 -0.000728 -0.001477 0.000562 0.002522 -0.003066 0.003773 -0.005038 -0.001103 -0.003713 0.000147 0.001662 -0.004566 -0.001015 -0.002337 0.002765 -0.000203 -0.001914 -0.002276 -0.000648 -0.000717 0.000492 0.002281 -0.000921 0.000903 -0.003155 -0.000373 0.002294 -0.001144 0.000969 -0.005710 0.002466 0.003508 -0.000431 0.002015 0.001857 0.001680 0.000802 0.002779 0.001136 0.000966 -0.000636 -0.005448 -0.000077 0.001583 0.005092 0.003041 -0.003874 -0.004383 -0.001522 0.001015 0.001031 -0.001381 -0.000782 0.001076 -0.000399 -0.000545 0.000689 -0.003359 -0.003007 0.001661 0.001059 0.000326 0.000013 0.001432 -0.000374 -0.001533 -0.003605 -0.000771 -0.002426 -0.000382 0.000609 -0.000905 0.000418 -0.000146 0.002290 0.001203 -0.003277 0.001501 0.000185 -0.002524 0.000250 -0.002609 -0.001249 -0.000020 -0.001683 -0.004165 -0.001520 0.001598 -0.004533 -0.002970 -0.004401 0.000387 -0.002843 0.000548 -0.002273 -0.003886 0.005068 -0.001817 0.002402 0.001284 -0.005980 -0.000088 0.002731 0.004418 -0.000136 0.002023 0.004892 0.001635 -0.005213 0.003603 0.000039 -0.001096 0.000316
us -0.001735 0.001270 0.000503 -0.002091 0.000629 -0.002145 0.000300 -0.001925 -0.003785 -0.006011 -0.002025 0.002759 0.002082 -0.004221 0.001458 0.001651 0.005809 -0.004023 0.002720 0.001742 0.005168 0.001117 -0.001187 0.000674 -0.002748 0.000285 -0.001756 0.000825 0.003016 0.002574 -0.000406 0.000950 0.002265 -0.001648 0.002890 -0.000503 -0.001073 0.001655 0.001521 0.000208 -0.004682 0.002143 0.002413 -0.001180 0.001799 -0.001542 0.005129 -0.001027 -0.001897 -0.000743 0.001880 0.000733 -0.000752 0.004234 -0.003391 -0.001827 0.004991 0.003931 -0.001195 0.001657 0.002730 -0.004551 -0.000509 0.002356 -0.001584 0.002401 0.000481 -0.004986 -0.001988 0.001151 -0.000823 -0.004857 -0.004532 0.002991 -0.003032 -0.001428 0.000425 -0.000647 -0.002883 0.001558 -0.000013 -0.000533 -0.001587 -0.002998 -0.004224 0.001572 -0.000100 -0.004720 0.001298 0.000236 0.001187 -0.002045 -0.000005 0.002347 0.001006 0.000496 0.000911 0.002668 0.001339 -0.000712 0.000093 -0.001560 0.002594 0.001481 -0.000996 0.000022 -0.001378 0.000509 -0.000579 -0.003715 -0.005129 0.000131 0.002980 0.001870 0.005871 0.000056 -0.001826 0.006853 0.002206 -0.002652 0.002126 0.002505 0.002399 -0.003029 -0.000763 -0.005894 -0.001037 0.005175 0.000844 -0.001300 -0.000678 0.000369 -0.002712 0.003023 0.004102 0.000502 0.004871 0.003771 -0.001021 -0.001902 -0.002898 -0.001560 -0.003010 -0.001670 0.002428 -0.001340 -0.000113 0.002204 -0.002970 0.000860 0.001302 -0.003066 0.000305 0.003074 0.003858 0.006028 0.000337 0.000902 0.001514 0.001986 0.002956 0.002164 0.001774 -0.000998 0.003372 -0.002956 0.002106 -0.000781 0.005061 -0.002210 0.001470 0.001713 0.002932 -0.002514 0.000094 0.000621 -0.001485 -0.003344 0.000460 0.000176 0.000419 0.002214 -0.001362 -0.000349 0.003036 0.001446 -0.002049 0.001603 0.000592 0.002185 -0.002993 0.001936 0.000096 -0.001188 -0.002593 0.003527 -0.003314 0.004414 0.001440 0.002539
child 0.002551 0.004947 0.000835 -0.002368 -0.003026 -0.002468 0.002222 -0.000083 -0.001325 0.000838 0.000512 -0.001594 -0.002945 0.001922 -0.001393 -0.002972 -0.002013 0.001256 0.000012 0.000573 -0.002424 -0.001859 0.000869 -0.001087 0.002649 0.000697 0.002909 -0.002122 0.001439 -0.001299 0.000657 0.002168 -0.002407 -0.000495 -0.005139 0.003587 -0.002827 -0.003147 0.000205 -0.001840 -0.002615 0.001516 -0.001392 0.000373 -0.000212 -0.001352 -0.001603 -0.003854 -0.002673 -0.003847 -0.002419 -0.000875 0.003718 -0.000171 0.001015 -0.004150 -0.001395 0.002983 0.002242 0.001929 0.000575 -0.001960 0.000628 -0.002096 0.001070 0.001167 0.001676 0.001320 -0.003294 0.000600 0.001281 0.003589 0.003332 0.001309 0.000398 -0.003018 0.001142 -0.004657 -0.001282 -0.000492 -0.004303 0.002275 0.001279 0.004191 0.003201 0.001586 -0.001414 0.000471 -0.004878 -0.000946 -0.001296 -0.002116 0.005379 -0.001298 -0.005080 0.003100 -0.002887 0.000017 0.003020 0.000099 0.002421 0.002410 -0.004243 0.000624 0.002153 -0.002158 0.002903 -0.003777 -0.000170 0.000197 -0.001047 -0.002396 0.000591 0.002484 -0.003854 -0.003002 -0.003349 -0.005543 -0.002603 -0.001324 0.002031 -0.003990 -0.004114 0.002384 0.003099 0.002604 -0.002072 -0.000970 -0.004763 -0.001352 0.001680 0.000398 0.001513 -0.002195 -0.004772 -0.000532 -0.001343 -0.001605 0.000029 -0.000490 -0.000907 -0.002344 0.003616 -0.001177 -0.001438 -0.000376 0.001484 0.002504 0.000065 -0.004477 -0.003546 0.003551 -0.003761 -0.002513 -0.000424 -0.005778 -0.004361 0.001554 0.004365 0.001298 -0.002762 0.000756 0.000314 0.002125 -0.001985 -0.000267 -0.000430 -0.000668 -0.003909 0.002785 0.000865 -0.003815 0.003181 0.003313 0.000862 0.002954 0.002255 0.003359 0.005700 -0.000109 0.002673 -0.004538 0.004711 0.003399 -0.000307 0.000571 0.001528 0.000904 -0.003560 -0.002666 -0.001403 -0.001371 0.003052 -0.000757 -0.004021 -0.003527 0.001385 -0.001583 -0.006367 -0.000148
is -0.001807 0.004704 0.004747 -0.000968 -0.002632 -0.000544 0.000380 -0.001932 -0.001238 0.003848 0.001066 0.000594 -0.006033 0.004043 0.001143 -0.001236 -0.003807 -0.000329 0.002654 0.000955 -0.003145 0.001581 0.002935 -0.000432 -0.001122 -0.002234 0.001588 -0.003010 -0.001125 -0.003500 0.000322 -0.000318 0.002672 -0.000018 0.000819 -0.000268 0.001241 -0.001241 -0.002522 -0.005020 0.001818 0.000248 0.002425 -0.001107 -0.000052 -0.001066 -0.002780 -0.001250 -0.000455 -0.001346 -0.003175 0.000184 -0.002228 -0.003640 0.002224 -0.001569 0.000926 -0.000737 0.002248 0.003021 0.000372 0.000232 0.000740 -0.003508 -0.000621 0.000910 -0.001591 0.001904 0.002232 0.003148 -0.001608 0.002767 -0.001513 0.001417 -0.000220 -0.000891 0.000928 -0.001275 -0.001191 -0.000170 -0.003017 0.001791 0.001880 0.002344 0.004486 -0.001974 0.002108 0.005661 -0.003789 0.003399 -0.000921 0.001128 0.003912 -0.002968 -0.004140 0.002625 -0.003251 0.001099 -0.000588 -0.000460 -0.002191 0.003607 -0.000741 -0.000161 0.003288 -0.000711 -0.000728 -0.000233 0.001819 0.001945 0.000192 -0.003287 0.000532 0.001279 -0.001417 0.001164 -0.003586 -0.001318 -0.004463 -0.000717 -0.000000 -0.004609 -0.000741 0.001980 0.003039 0.003330 -0.001458 0.000027 -0.004514 0.001520 0.003263 0.002242 0.003472 -0.003679 -0.002714 0.002062 0.001643 -0.000198 -0.001995 0.000229 0.002724 -0.002257 0.003996 -0.003095 -0.002818 -0.002179 -0.000263 0.000079 0.001761 0.001326 -0.000688 -0.001495 -0.000262 -0.000328 -0.003014 -0.001748 -0.001913 0.002509 0.002140 0.001398 -0.005269 -0.001996 0.001131 0.003167 -0.002950 -0.002652 -0.002054 0.001831 -0.001569 0.001246 0.002106 -0.002761 -0.002712 0.001195 0.005281 -0.000330 0.001795 0.003640 0.003062 -0.001249 -0.000545 0.001742 -0.000534 0.003137 0.001100 -0.001147 0.000631 -0.003637 -0.002051 -0.000238 0.002055 0.000735 0.003215 -0.003535 -0.001289 -0.003255 0.003012 -0.001101 -0.005173 0.000527
time -0.000971 -0.001891 0.000580 -0.004071 -0.000151 -0.002907 0.001471 -0.000235 -0.001516 -0.001846 -0.002205 0.001878 0.001209 -0.002584 0.000883 0.003566 0.003408 -0.003156 0.002765 0.002850 0.002405 0.001436 -0.001049 0.002331 0.000752 0.001818 0.003332 0.000497 0.002595 0.000310 -0.001559 0.004149 -0.000495 0.001874 0.003371 0.002773 0.000038 -0.001862 0.000738 -0.001897 0.002004 0.000882 0.003678 -0.000323 -0.004568 -0.004339 0.001354 -0.001210 0.001966 0.001189 0.002389 0.003017 0.001368 0.001259 -0.002592 0.000089 0.002842 0.002729 0.001436 -0.000881 0.001242 0.002925 -0.001576 0.001812 -0.001683 -0.001997 -0.000021 0.000585 0.001296 -0.001668 -0.000384 -0.006013 -0.001632 -0.001931 0.000707 -0.002448 -0.001613 0.002619 -0.000721 -0.001123 -0.000271 -0.000283 -0.003063 0.001236 -0.003473 -0.003040 0.000922 -0.001351 0.002020 0.000332 0.000605 -0.002362 -0.001256 -0.002203 0.001088 -0.001754 0.001696 -0.000876 0.002013 0.000800 -0.000303 -0.002001 -0.001860 0.002653 -0.000964 -0.001999 0.003545 0.000945 0.000581 -0.002511 0.000493 0.004108 0.000230 -0.000353 0.002662 0.002041 -0.001760 0.003953 0.000839 -0.000986 0.000296 -0.002159 0.000549 0.000563 -0.003017 -0.003154 -0.000076 0.001044 0.001949 -0.000204 0.003652 -0.002751 -0.000015 -0.002434 0.001709 -0.003069 0.001800 0.000117 0.001843 0.004732 0.001364 0.001272 -0.002964 -0.000707 0.000873 -0.001676 0.000505 0.000260 -0.004081 0.001204 0.003499 -0.002685 0.002957 -0.002028 0.003118 0.006935 0.002844 0.000132 0.002122 -0.001453 -0.000100 0.003213 0.000820 -0.001116 -0.001125 -0.000978 -0.000958 0.003281 0.002970 0.000112 0.003365 0.001813 0.002067 -0.000645 -0.003004 0.004509 0.001013 -0.001520 -0.002257 -0.000363 0.002551 0.005126 0.001226 -0.001648 0.001421 0.004266 0.001078 0.003136 -0.000409 0.000178 -0.002984 -0.001854 0.000275 -0.001511 -0.002870 0.003359 -0.000362 0.003879 0.002916 0.003294
<unk> -0.000924 0.000499 0.001305 0.000003 -0.001026 -0.001229 0.002272 0.001753 -0.000100 -0.000095 0.000011 0.000022 0.000540 -0.001321 -0.001059 -0.000610 -0.001068 -0.000294 -0.000138 -0.000757 -0.001587 0.000589 0.000304 -0.001232 0.001566 -0.000794 0.000081 0.000979 -0.000663 0.000313 -0.001419 -0.000419 0.001454 0.001086 -0.000119 -0.000212 -0.000517 -0.001244 0.000692 -0.001123 0.000065 0.000450 0.000368 0.000437 0.000716 -0.000772 0.001407 -0.000500 0.000152 -0.000200 -0.002246 0.000657 0.001346 0.000683 0.000657 -0.001305 -0.001096 0.000561 0.001013 0.001347 0.000551 0.001307 0.001687 -0.000208 -0.001041 0.001341 -0.001138 0.000311 -0.000072 0.000750 -0.000116 -0.000297 -0.000424 -0.000914 -0.000804 0.000600 0.000705 -0.000611 -0.000500 0.000204 -0.001867 -0.001535 -0.000039 0.000283 -0.000262 -0.000227 0.000543 -0.001012 -0.001200 0.000086 0.001213 -0.000556 0.000909 -0.002099 -0.000496 -0.001127 -0.000489 -0.000109 -0.001049 0.000680 -0.002256 0.000957 -0.000526 0.000398 0.000185 -0.001555 -0.000920 0.000206 0.001361 -0.000750 -0.000713 0.000173 0.001412 0.000598 0.002303 0.000893 -0.001819 0.001830 0.000711 -0.000352 0.002065 0.001497 0.000159 -0.000413 0.000435 0.000777 -0.000071 0.000386 -0.000856 -0.000416 0.000566 0.001250 0.000543 -0.001337 -0.002351 -0.000875 0.000592 0.000032 0.000294 0.001046 -0.000047 0.000115 -0.000934 0.000070 -0.000216 -0.002157 -0.000098 0.000469 0.000459 -0.000431 0.001181 0.000211 -0.000594 -0.001041 -0.000568 0.000860 -0.000162 0.001605 0.001099 0.001020 0.000348 -0.000292 0.000442 -0.000407 0.000826 0.000305 0.000132 0.000656 -0.000649 -0.000103 0.000023 -0.000378 -0.001388 -0.001231 0.000701 0.000637 -0.000066 -0.001805 -0.000207 -0.000546 0.000370 -0.000195 -0.000540 0.001016 -0.000323 0.000992 0.000169 -0.001045 0.000601 0.002201 0.002703 -0.000223 -0.000025 -0.000020 -0.000944 -0.001443 -0.000156 0.001274 0.000027 -0.000424
